digraph Tree {
node [shape=box, style="filled, rounded", color="black", fontname=helvetica] ;
edge [fontname=helvetica] ;
0 [label="x1 <= 0.094\nmse = 11.066\nsamples = 783\nvalue = -0.042", fillcolor="#efb083"] ;
1 [label="x1 <= -0.987\nmse = 5.784\nsamples = 414\nvalue = -2.381", fillcolor="#f2bf9a"] ;
0 -> 1 [labeldistance=2.5, labelangle=45, headlabel="True"] ;
2 [label="x1 <= -2.028\nmse = 4.874\nsamples = 128\nvalue = -5.006", fillcolor="#f5d0b5"] ;
1 -> 2 ;
3 [label="x1 <= -3.288\nmse = 3.808\nsamples = 18\nvalue = -9.156", fillcolor="#fbeadf"] ;
2 -> 3 ;
4 [label="mse = 2.323\nsamples = 3\nvalue = -12.387", fillcolor="#ffffff"] ;
3 -> 4 ;
5 [label="mse = 1.599\nsamples = 15\nvalue = -8.51", fillcolor="#fae6d8"] ;
3 -> 5 ;
6 [label="x2 <= 0.828\nmse = 1.769\nsamples = 110\nvalue = -4.327", fillcolor="#f4cbae"] ;
2 -> 6 ;
7 [label="mse = 1.003\nsamples = 79\nvalue = -3.767", fillcolor="#f4c8a8"] ;
6 -> 7 ;
8 [label="mse = 0.883\nsamples = 31\nvalue = -5.755", fillcolor="#f6d5bc"] ;
6 -> 8 ;
9 [label="x1 <= -0.504\nmse = 1.729\nsamples = 286\nvalue = -1.206", fillcolor="#f0b78f"] ;
1 -> 9 ;
10 [label="x2 <= -0.377\nmse = 1.157\nsamples = 104\nvalue = -2.305", fillcolor="#f2bf9a"] ;
9 -> 10 ;
11 [label="mse = 0.256\nsamples = 41\nvalue = -1.235", fillcolor="#f0b88f"] ;
10 -> 11 ;
12 [label="mse = 0.513\nsamples = 63\nvalue = -3.002", fillcolor="#f3c3a1"] ;
10 -> 12 ;
13 [label="x2 <= 0.102\nmse = 0.971\nsamples = 182\nvalue = -0.578", fillcolor="#efb388"] ;
9 -> 13 ;
14 [label="mse = 0.403\nsamples = 108\nvalue = 0.024", fillcolor="#efb082"] ;
13 -> 14 ;
15 [label="mse = 0.499\nsamples = 74\nvalue = -1.457", fillcolor="#f1b991"] ;
13 -> 15 ;
16 [label="x1 <= 0.772\nmse = 3.968\nsamples = 369\nvalue = 2.582", fillcolor="#eb9f69"] ;
0 -> 16 [labeldistance=2.5, labelangle=-45, headlabel="False"] ;
17 [label="x2 <= 0.217\nmse = 1.366\nsamples = 190\nvalue = 1.193", fillcolor="#eda876"] ;
16 -> 17 ;
18 [label="x2 <= -1.454\nmse = 0.76\nsamples = 108\nvalue = 1.919", fillcolor="#eca36f"] ;
17 -> 18 ;
19 [label="mse = 0.728\nsamples = 20\nvalue = 3.052", fillcolor="#eb9c64"] ;
18 -> 19 ;
20 [label="mse = 0.409\nsamples = 88\nvalue = 1.661", fillcolor="#eca572"] ;
18 -> 20 ;
21 [label="x1 <= 0.544\nmse = 0.556\nsamples = 82\nvalue = 0.237", fillcolor="#eeae80"] ;
17 -> 21 ;
22 [label="mse = 0.314\nsamples = 56\nvalue = -0.084", fillcolor="#efb083"] ;
21 -> 22 ;
23 [label="mse = 0.379\nsamples = 26\nvalue = 0.928", fillcolor="#edaa79"] ;
21 -> 23 ;
24 [label="x1 <= 1.558\nmse = 2.51\nsamples = 179\nvalue = 4.056", fillcolor="#e9965a"] ;
16 -> 24 ;
25 [label="x2 <= 0.183\nmse = 1.064\nsamples = 129\nvalue = 3.347", fillcolor="#ea9a61"] ;
24 -> 25 ;
26 [label="mse = 0.637\nsamples = 74\nvalue = 3.884", fillcolor="#ea975b"] ;
25 -> 26 ;
27 [label="mse = 0.726\nsamples = 55\nvalue = 2.623", fillcolor="#eb9f68"] ;
25 -> 27 ;
28 [label="x1 <= 2.042\nmse = 1.594\nsamples = 50\nvalue = 5.886", fillcolor="#e78a47"] ;
24 -> 28 ;
29 [label="mse = 0.69\nsamples = 36\nvalue = 5.333", fillcolor="#e88e4d"] ;
28 -> 29 ;
30 [label="mse = 1.109\nsamples = 14\nvalue = 7.308", fillcolor="#e58139"] ;
28 -> 30 ;
}